digraph Tree {
node [shape=box] ;
0 [label="press_phone_pressure_temp_mean_ws_120 <= 1029.224\nentropy = 2.739\nsamples = 2018\nvalue = [252, 138, 158, 76, 175, 148, 299, 40, 732]\nclass = undefined"] ;
1 [label="press_phone_pressure_temp_mean_ws_120 <= 1013.237\nentropy = 2.365\nsamples = 1497\nvalue = [252, 138, 0, 76, 0, 148, 250, 28, 605]\nclass = undefined"] ;
0 -> 1 [labeldistance=2.5, labelangle=45, headlabel="True"] ;
2 [label="acc_phone_y_freq_0.0_Hz_ws_40 <= 389.073\nentropy = 1.53\nsamples = 720\nvalue = [12, 0, 0, 76, 0, 54, 107, 0, 471]\nclass = undefined"] ;
1 -> 2 ;
3 [label="gyr_phone_x_temp_std_ws_120 <= 0.996\nentropy = 0.942\nsamples = 564\nvalue = [12, 0, 0, 76, 0, 10, 8, 0, 458]\nclass = undefined"] ;
2 -> 3 ;
4 [label="press_phone_pressure_temp_mean_ws_120 <= 1012.076\nentropy = 0.518\nsamples = 480\nvalue = [12, 0, 0, 5, 0, 10, 8, 0, 445]\nclass = undefined"] ;
3 -> 4 ;
5 [label="acc_phone_y_freq_0.0_Hz_ws_40 <= 185.867\nentropy = 0.046\nsamples = 391\nvalue = [0, 0, 0, 0, 0, 0, 2, 0, 389]\nclass = undefined"] ;
4 -> 5 ;
6 [label="entropy = 0.0\nsamples = 345\nvalue = [0, 0, 0, 0, 0, 0, 0, 0, 345]\nclass = undefined"] ;
5 -> 6 ;
7 [label="press_phone_pressure_temp_mean_ws_120 <= 1011.517\nentropy = 0.258\nsamples = 46\nvalue = [0, 0, 0, 0, 0, 0, 2, 0, 44]\nclass = undefined"] ;
5 -> 7 ;
8 [label="entropy = 0.0\nsamples = 2\nvalue = [0, 0, 0, 0, 0, 0, 2, 0, 0]\nclass = labelWalking"] ;
7 -> 8 ;
9 [label="entropy = 0.0\nsamples = 44\nvalue = [0, 0, 0, 0, 0, 0, 0, 0, 44]\nclass = undefined"] ;
7 -> 9 ;
10 [label="gyr_phone_x_temp_std_ws_120 <= 0.179\nentropy = 1.66\nsamples = 89\nvalue = [12, 0, 0, 5, 0, 10, 6, 0, 56]\nclass = undefined"] ;
4 -> 10 ;
11 [label="mag_phone_z_max_freq <= 0.158\nentropy = 0.722\nsamples = 15\nvalue = [12, 0, 0, 0, 0, 0, 0, 0, 3]\nclass = labelDriving"] ;
10 -> 11 ;
12 [label="entropy = 0.0\nsamples = 12\nvalue = [12, 0, 0, 0, 0, 0, 0, 0, 0]\nclass = labelDriving"] ;
11 -> 12 ;
13 [label="entropy = 0.0\nsamples = 3\nvalue = [0, 0, 0, 0, 0, 0, 0, 0, 3]\nclass = undefined"] ;
11 -> 13 ;
14 [label="acc_phone_y_freq_0.0_Hz_ws_40 <= -55.748\nentropy = 1.292\nsamples = 74\nvalue = [0, 0, 0, 5, 0, 10, 6, 0, 53]\nclass = undefined"] ;
10 -> 14 ;
15 [label="press_phone_pressure_temp_mean_ws_120 <= 1012.799\nentropy = 0.439\nsamples = 44\nvalue = [0, 0, 0, 4, 0, 0, 0, 0, 40]\nclass = undefined"] ;
14 -> 15 ;
16 [label="entropy = 0.0\nsamples = 40\nvalue = [0, 0, 0, 0, 0, 0, 0, 0, 40]\nclass = undefined"] ;
15 -> 16 ;
17 [label="entropy = 0.0\nsamples = 4\nvalue = [0, 0, 0, 4, 0, 0, 0, 0, 0]\nclass = labelRunning"] ;
15 -> 17 ;
18 [label="press_phone_pressure_temp_mean_ws_120 <= 1012.891\nentropy = 1.679\nsamples = 30\nvalue = [0, 0, 0, 1, 0, 10, 6, 0, 13]\nclass = undefined"] ;
14 -> 18 ;
19 [label="press_phone_pressure_temp_mean_ws_120 <= 1012.101\nentropy = 1.485\nsamples = 20\nvalue = [0, 0, 0, 0, 0, 10, 6, 0, 4]\nclass = labelStanding"] ;
18 -> 19 ;
20 [label="entropy = 0.0\nsamples = 5\nvalue = [0, 0, 0, 0, 0, 0, 5, 0, 0]\nclass = labelWalking"] ;
19 -> 20 ;
21 [label="acc_phone_x_freq_1.9_Hz_ws_40 <= -4.314\nentropy = 1.159\nsamples = 15\nvalue = [0, 0, 0, 0, 0, 10, 1, 0, 4]\nclass = labelStanding"] ;
19 -> 21 ;
22 [label="mag_phone_z_max_freq <= 0.792\nentropy = 0.722\nsamples = 5\nvalue = [0, 0, 0, 0, 0, 1, 0, 0, 4]\nclass = undefined"] ;
21 -> 22 ;
23 [label="entropy = 1.0\nsamples = 2\nvalue = [0, 0, 0, 0, 0, 1, 0, 0, 1]\nclass = labelStanding"] ;
22 -> 23 ;
24 [label="entropy = 0.0\nsamples = 3\nvalue = [0, 0, 0, 0, 0, 0, 0, 0, 3]\nclass = undefined"] ;
22 -> 24 ;
25 [label="gyr_phone_x_temp_std_ws_120 <= 0.93\nentropy = 0.469\nsamples = 10\nvalue = [0, 0, 0, 0, 0, 9, 1, 0, 0]\nclass = labelStanding"] ;
21 -> 25 ;
26 [label="entropy = 0.0\nsamples = 8\nvalue = [0, 0, 0, 0, 0, 8, 0, 0, 0]\nclass = labelStanding"] ;
25 -> 26 ;
27 [label="entropy = 1.0\nsamples = 2\nvalue = [0, 0, 0, 0, 0, 1, 1, 0, 0]\nclass = labelStanding"] ;
25 -> 27 ;
28 [label="mag_watch_z_freq_0.9_Hz_ws_40 <= 22.294\nentropy = 0.469\nsamples = 10\nvalue = [0, 0, 0, 1, 0, 0, 0, 0, 9]\nclass = undefined"] ;
18 -> 28 ;
29 [label="entropy = 0.0\nsamples = 8\nvalue = [0, 0, 0, 0, 0, 0, 0, 0, 8]\nclass = undefined"] ;
28 -> 29 ;
30 [label="entropy = 1.0\nsamples = 2\nvalue = [0, 0, 0, 1, 0, 0, 0, 0, 1]\nclass = labelRunning"] ;
28 -> 30 ;
31 [label="acc_phone_y_freq_0.0_Hz_ws_40 <= -375.251\nentropy = 0.622\nsamples = 84\nvalue = [0, 0, 0, 71, 0, 0, 0, 0, 13]\nclass = labelRunning"] ;
3 -> 31 ;
32 [label="entropy = 0.0\nsamples = 6\nvalue = [0, 0, 0, 0, 0, 0, 0, 0, 6]\nclass = undefined"] ;
31 -> 32 ;
33 [label="acc_phone_y_freq_0.0_Hz_ws_40 <= -211.617\nentropy = 0.436\nsamples = 78\nvalue = [0, 0, 0, 71, 0, 0, 0, 0, 7]\nclass = labelRunning"] ;
31 -> 33 ;
34 [label="gyr_watch_y_freq_weighted <= -1.971\nentropy = 0.106\nsamples = 72\nvalue = [0, 0, 0, 71, 0, 0, 0, 0, 1]\nclass = labelRunning"] ;
33 -> 34 ;
35 [label="entropy = 1.0\nsamples = 2\nvalue = [0, 0, 0, 1, 0, 0, 0, 0, 1]\nclass = labelRunning"] ;
34 -> 35 ;
36 [label="entropy = 0.0\nsamples = 70\nvalue = [0, 0, 0, 70, 0, 0, 0, 0, 0]\nclass = labelRunning"] ;
34 -> 36 ;
37 [label="entropy = 0.0\nsamples = 6\nvalue = [0, 0, 0, 0, 0, 0, 0, 0, 6]\nclass = undefined"] ;
33 -> 37 ;
38 [label="press_phone_pressure_temp_mean_ws_120 <= 1012.681\nentropy = 1.23\nsamples = 156\nvalue = [0, 0, 0, 0, 0, 44, 99, 0, 13]\nclass = labelWalking"] ;
2 -> 38 ;
39 [label="acc_phone_y_freq_0.0_Hz_ws_40 <= 392.335\nentropy = 0.717\nsamples = 120\nvalue = [0, 0, 0, 0, 0, 20, 99, 0, 1]\nclass = labelWalking"] ;
38 -> 39 ;
40 [label="acc_phone_x_freq_1.9_Hz_ws_40 <= -0.334\nentropy = 0.678\nsamples = 23\nvalue = [0, 0, 0, 0, 0, 20, 2, 0, 1]\nclass = labelStanding"] ;
39 -> 40 ;
41 [label="entropy = 0.918\nsamples = 3\nvalue = [0, 0, 0, 0, 0, 0, 2, 0, 1]\nclass = labelWalking"] ;
40 -> 41 ;
42 [label="entropy = 0.0\nsamples = 20\nvalue = [0, 0, 0, 0, 0, 20, 0, 0, 0]\nclass = labelStanding"] ;
40 -> 42 ;
43 [label="entropy = 0.0\nsamples = 97\nvalue = [0, 0, 0, 0, 0, 0, 97, 0, 0]\nclass = labelWalking"] ;
39 -> 43 ;
44 [label="mag_phone_z_max_freq <= 0.054\nentropy = 0.918\nsamples = 36\nvalue = [0, 0, 0, 0, 0, 24, 0, 0, 12]\nclass = labelStanding"] ;
38 -> 44 ;
45 [label="acc_phone_x_freq_1.9_Hz_ws_40 <= 0.293\nentropy = 0.503\nsamples = 27\nvalue = [0, 0, 0, 0, 0, 24, 0, 0, 3]\nclass = labelStanding"] ;
44 -> 45 ;
46 [label="entropy = 0.0\nsamples = 24\nvalue = [0, 0, 0, 0, 0, 24, 0, 0, 0]\nclass = labelStanding"] ;
45 -> 46 ;
47 [label="entropy = 0.0\nsamples = 3\nvalue = [0, 0, 0, 0, 0, 0, 0, 0, 3]\nclass = undefined"] ;
45 -> 47 ;
48 [label="entropy = 0.0\nsamples = 9\nvalue = [0, 0, 0, 0, 0, 0, 0, 0, 9]\nclass = undefined"] ;
44 -> 48 ;
49 [label="press_phone_pressure_temp_mean_ws_120 <= 1028.74\nentropy = 2.394\nsamples = 777\nvalue = [240, 138, 0, 0, 0, 94, 143, 28, 134]\nclass = labelDriving"] ;
1 -> 49 ;
50 [label="acc_phone_y_freq_0.0_Hz_ws_40 <= 62.322\nentropy = 2.026\nsamples = 449\nvalue = [158, 138, 0, 0, 0, 27, 0, 28, 98]\nclass = labelDriving"] ;
49 -> 50 ;
51 [label="acc_phone_y_freq_0.0_Hz_ws_40 <= -78.688\nentropy = 1.344\nsamples = 250\nvalue = [152, 0, 0, 0, 0, 10, 0, 11, 77]\nclass = labelDriving"] ;
50 -> 51 ;
52 [label="press_phone_pressure_temp_mean_ws_120 <= 1028.636\nentropy = 0.929\nsamples = 89\nvalue = [0, 0, 0, 0, 0, 9, 0, 9, 71]\nclass = undefined"] ;
51 -> 52 ;
53 [label="gyr_phone_x_temp_std_ws_120 <= 0.544\nentropy = 0.191\nsamples = 68\nvalue = [0, 0, 0, 0, 0, 0, 0, 2, 66]\nclass = undefined"] ;
52 -> 53 ;
54 [label="entropy = 0.0\nsamples = 65\nvalue = [0, 0, 0, 0, 0, 0, 0, 0, 65]\nclass = undefined"] ;
53 -> 54 ;
55 [label="entropy = 0.918\nsamples = 3\nvalue = [0, 0, 0, 0, 0, 0, 0, 2, 1]\nclass = labelWashingHands"] ;
53 -> 55 ;
56 [label="mag_phone_z_max_freq <= 0.062\nentropy = 1.545\nsamples = 21\nvalue = [0, 0, 0, 0, 0, 9, 0, 7, 5]\nclass = labelStanding"] ;
52 -> 56 ;
57 [label="acc_phone_y_freq_0.0_Hz_ws_40 <= -395.305\nentropy = 0.98\nsamples = 12\nvalue = [0, 0, 0, 0, 0, 0, 0, 7, 5]\nclass = labelWashingHands"] ;
56 -> 57 ;
58 [label="entropy = 0.0\nsamples = 5\nvalue = [0, 0, 0, 0, 0, 0, 0, 0, 5]\nclass = undefined"] ;
57 -> 58 ;
59 [label="entropy = 0.0\nsamples = 7\nvalue = [0, 0, 0, 0, 0, 0, 0, 7, 0]\nclass = labelWashingHands"] ;
57 -> 59 ;
60 [label="entropy = 0.0\nsamples = 9\nvalue = [0, 0, 0, 0, 0, 9, 0, 0, 0]\nclass = labelStanding"] ;
56 -> 60 ;
61 [label="gyr_phone_x_temp_std_ws_120 <= 0.518\nentropy = 0.379\nsamples = 161\nvalue = [152, 0, 0, 0, 0, 1, 0, 2, 6]\nclass = labelDriving"] ;
51 -> 61 ;
62 [label="mag_phone_z_max_freq <= 0.569\nentropy = 0.172\nsamples = 156\nvalue = [152, 0, 0, 0, 0, 0, 0, 0, 4]\nclass = labelDriving"] ;
61 -> 62 ;
63 [label="entropy = 0.0\nsamples = 149\nvalue = [149, 0, 0, 0, 0, 0, 0, 0, 0]\nclass = labelDriving"] ;
62 -> 63 ;
64 [label="gyr_watch_y_freq_weighted <= 1.715\nentropy = 0.985\nsamples = 7\nvalue = [3, 0, 0, 0, 0, 0, 0, 0, 4]\nclass = undefined"] ;
62 -> 64 ;
65 [label="mag_phone_z_max_freq <= 1.253\nentropy = 0.811\nsamples = 4\nvalue = [3, 0, 0, 0, 0, 0, 0, 0, 1]\nclass = labelDriving"] ;
64 -> 65 ;
66 [label="entropy = 1.0\nsamples = 2\nvalue = [1, 0, 0, 0, 0, 0, 0, 0, 1]\nclass = labelDriving"] ;
65 -> 66 ;
67 [label="entropy = 0.0\nsamples = 2\nvalue = [2, 0, 0, 0, 0, 0, 0, 0, 0]\nclass = labelDriving"] ;
65 -> 67 ;
68 [label="entropy = 0.0\nsamples = 3\nvalue = [0, 0, 0, 0, 0, 0, 0, 0, 3]\nclass = undefined"] ;
64 -> 68 ;
69 [label="mag_watch_z_freq_0.9_Hz_ws_40 <= -1.471\nentropy = 1.522\nsamples = 5\nvalue = [0, 0, 0, 0, 0, 1, 0, 2, 2]\nclass = labelWashingHands"] ;
61 -> 69 ;
70 [label="entropy = 0.918\nsamples = 3\nvalue = [0, 0, 0, 0, 0, 1, 0, 2, 0]\nclass = labelWashingHands"] ;
69 -> 70 ;
71 [label="entropy = 0.0\nsamples = 2\nvalue = [0, 0, 0, 0, 0, 0, 0, 0, 2]\nclass = undefined"] ;
69 -> 71 ;
72 [label="acc_phone_y_freq_0.0_Hz_ws_40 <= 293.179\nentropy = 1.467\nsamples = 199\nvalue = [6, 138, 0, 0, 0, 17, 0, 17, 21]\nclass = labelEating"] ;
50 -> 72 ;
73 [label="mag_phone_z_max_freq <= 0.01\nentropy = 0.852\nsamples = 167\nvalue = [6, 138, 0, 0, 0, 0, 0, 2, 21]\nclass = labelEating"] ;
72 -> 73 ;
74 [label="entropy = 0.0\nsamples = 125\nvalue = [0, 125, 0, 0, 0, 0, 0, 0, 0]\nclass = labelEating"] ;
73 -> 74 ;
75 [label="press_phone_pressure_temp_mean_ws_120 <= 1028.474\nentropy = 1.634\nsamples = 42\nvalue = [6, 13, 0, 0, 0, 0, 0, 2, 21]\nclass = undefined"] ;
73 -> 75 ;
76 [label="entropy = 0.0\nsamples = 6\nvalue = [6, 0, 0, 0, 0, 0, 0, 0, 0]\nclass = labelDriving"] ;
75 -> 76 ;
77 [label="gyr_phone_x_temp_std_ws_120 <= 0.39\nentropy = 1.216\nsamples = 36\nvalue = [0, 13, 0, 0, 0, 0, 0, 2, 21]\nclass = undefined"] ;
75 -> 77 ;
78 [label="gyr_watch_y_freq_weighted <= 0.853\nentropy = 0.992\nsamples = 29\nvalue = [0, 13, 0, 0, 0, 0, 0, 0, 16]\nclass = undefined"] ;
77 -> 78 ;
79 [label="gyr_phone_x_temp_std_ws_120 <= 0.135\nentropy = 0.934\nsamples = 20\nvalue = [0, 13, 0, 0, 0, 0, 0, 0, 7]\nclass = labelEating"] ;
78 -> 79 ;
80 [label="entropy = 0.0\nsamples = 4\nvalue = [0, 0, 0, 0, 0, 0, 0, 0, 4]\nclass = undefined"] ;
79 -> 80 ;
81 [label="acc_phone_x_freq_1.9_Hz_ws_40 <= -0.099\nentropy = 0.696\nsamples = 16\nvalue = [0, 13, 0, 0, 0, 0, 0, 0, 3]\nclass = labelEating"] ;
79 -> 81 ;
82 [label="gyr_phone_x_temp_std_ws_120 <= 0.227\nentropy = 0.985\nsamples = 7\nvalue = [0, 4, 0, 0, 0, 0, 0, 0, 3]\nclass = labelEating"] ;
81 -> 82 ;
83 [label="acc_phone_x_freq_1.9_Hz_ws_40 <= -3.015\nentropy = 0.811\nsamples = 4\nvalue = [0, 1, 0, 0, 0, 0, 0, 0, 3]\nclass = undefined"] ;
82 -> 83 ;
84 [label="entropy = 1.0\nsamples = 2\nvalue = [0, 1, 0, 0, 0, 0, 0, 0, 1]\nclass = labelEating"] ;
83 -> 84 ;
85 [label="entropy = 0.0\nsamples = 2\nvalue = [0, 0, 0, 0, 0, 0, 0, 0, 2]\nclass = undefined"] ;
83 -> 85 ;
86 [label="entropy = 0.0\nsamples = 3\nvalue = [0, 3, 0, 0, 0, 0, 0, 0, 0]\nclass = labelEating"] ;
82 -> 86 ;
87 [label="entropy = 0.0\nsamples = 9\nvalue = [0, 9, 0, 0, 0, 0, 0, 0, 0]\nclass = labelEating"] ;
81 -> 87 ;
88 [label="entropy = 0.0\nsamples = 9\nvalue = [0, 0, 0, 0, 0, 0, 0, 0, 9]\nclass = undefined"] ;
78 -> 88 ;
89 [label="gyr_phone_y_freq_1.0_Hz_ws_40 <= -0.442\nentropy = 0.863\nsamples = 7\nvalue = [0, 0, 0, 0, 0, 0, 0, 2, 5]\nclass = undefined"] ;
77 -> 89 ;
90 [label="entropy = 0.918\nsamples = 3\nvalue = [0, 0, 0, 0, 0, 0, 0, 2, 1]\nclass = labelWashingHands"] ;
89 -> 90 ;
91 [label="entropy = 0.0\nsamples = 4\nvalue = [0, 0, 0, 0, 0, 0, 0, 0, 4]\nclass = undefined"] ;
89 -> 91 ;
92 [label="press_phone_pressure_temp_mean_ws_120 <= 1020.898\nentropy = 0.997\nsamples = 32\nvalue = [0, 0, 0, 0, 0, 17, 0, 15, 0]\nclass = labelStanding"] ;
72 -> 92 ;
93 [label="entropy = 0.0\nsamples = 17\nvalue = [0, 0, 0, 0, 0, 17, 0, 0, 0]\nclass = labelStanding"] ;
92 -> 93 ;
94 [label="entropy = 0.0\nsamples = 15\nvalue = [0, 0, 0, 0, 0, 0, 0, 15, 0]\nclass = labelWashingHands"] ;
92 -> 94 ;
95 [label="acc_phone_y_freq_0.0_Hz_ws_40 <= -290.98\nentropy = 1.84\nsamples = 328\nvalue = [82, 0, 0, 0, 0, 67, 143, 0, 36]\nclass = labelWalking"] ;
49 -> 95 ;
96 [label="acc_phone_y_freq_0.0_Hz_ws_40 <= -399.325\nentropy = 0.976\nsamples = 154\nvalue = [0, 0, 0, 0, 0, 63, 91, 0, 0]\nclass = labelWalking"] ;
95 -> 96 ;
97 [label="entropy = 0.0\nsamples = 90\nvalue = [0, 0, 0, 0, 0, 0, 90, 0, 0]\nclass = labelWalking"] ;
96 -> 97 ;
98 [label="acc_phone_x_freq_1.9_Hz_ws_40 <= -1.231\nentropy = 0.116\nsamples = 64\nvalue = [0, 0, 0, 0, 0, 63, 1, 0, 0]\nclass = labelStanding"] ;
96 -> 98 ;
99 [label="entropy = 1.0\nsamples = 2\nvalue = [0, 0, 0, 0, 0, 1, 1, 0, 0]\nclass = labelStanding"] ;
98 -> 99 ;
100 [label="entropy = 0.0\nsamples = 62\nvalue = [0, 0, 0, 0, 0, 62, 0, 0, 0]\nclass = labelStanding"] ;
98 -> 100 ;
101 [label="acc_phone_y_freq_0.0_Hz_ws_40 <= 321.854\nentropy = 1.628\nsamples = 174\nvalue = [82, 0, 0, 0, 0, 4, 52, 0, 36]\nclass = labelDriving"] ;
95 -> 101 ;
102 [label="gyr_phone_x_temp_std_ws_120 <= 0.714\nentropy = 1.39\nsamples = 133\nvalue = [82, 0, 0, 0, 0, 4, 11, 0, 36]\nclass = labelDriving"] ;
101 -> 102 ;
103 [label="press_phone_pressure_temp_mean_ws_120 <= 1028.973\nentropy = 1.148\nsamples = 108\nvalue = [82, 0, 0, 0, 0, 4, 10, 0, 12]\nclass = labelDriving"] ;
102 -> 103 ;
104 [label="acc_phone_y_freq_0.0_Hz_ws_40 <= 78.051\nentropy = 0.707\nsamples = 95\nvalue = [82, 0, 0, 0, 0, 0, 5, 0, 8]\nclass = labelDriving"] ;
103 -> 104 ;
105 [label="mag_phone_z_max_freq <= 0.021\nentropy = 0.281\nsamples = 82\nvalue = [78, 0, 0, 0, 0, 0, 4, 0, 0]\nclass = labelDriving"] ;
104 -> 105 ;
106 [label="entropy = 0.0\nsamples = 67\nvalue = [67, 0, 0, 0, 0, 0, 0, 0, 0]\nclass = labelDriving"] ;
105 -> 106 ;
107 [label="press_phone_pressure_temp_mean_ws_120 <= 1028.893\nentropy = 0.837\nsamples = 15\nvalue = [11, 0, 0, 0, 0, 0, 4, 0, 0]\nclass = labelDriving"] ;
105 -> 107 ;
108 [label="entropy = 0.0\nsamples = 8\nvalue = [8, 0, 0, 0, 0, 0, 0, 0, 0]\nclass = labelDriving"] ;
107 -> 108 ;
109 [label="gyr_phone_x_temp_std_ws_120 <= 0.25\nentropy = 0.985\nsamples = 7\nvalue = [3, 0, 0, 0, 0, 0, 4, 0, 0]\nclass = labelWalking"] ;
107 -> 109 ;
110 [label="entropy = 0.0\nsamples = 3\nvalue = [3, 0, 0, 0, 0, 0, 0, 0, 0]\nclass = labelDriving"] ;
109 -> 110 ;
111 [label="entropy = 0.0\nsamples = 4\nvalue = [0, 0, 0, 0, 0, 0, 4, 0, 0]\nclass = labelWalking"] ;
109 -> 111 ;
112 [label="acc_phone_y_freq_0.0_Hz_ws_40 <= 179.722\nentropy = 1.239\nsamples = 13\nvalue = [4, 0, 0, 0, 0, 0, 1, 0, 8]\nclass = undefined"] ;
104 -> 112 ;
113 [label="acc_watch_y_freq_0.5_Hz_ws_40 <= -3.54\nentropy = 0.503\nsamples = 9\nvalue = [1, 0, 0, 0, 0, 0, 0, 0, 8]\nclass = undefined"] ;
112 -> 113 ;
114 [label="entropy = 1.0\nsamples = 2\nvalue = [1, 0, 0, 0, 0, 0, 0, 0, 1]\nclass = labelDriving"] ;
113 -> 114 ;
115 [label="entropy = 0.0\nsamples = 7\nvalue = [0, 0, 0, 0, 0, 0, 0, 0, 7]\nclass = undefined"] ;
113 -> 115 ;
116 [label="press_phone_pressure_temp_mean_ws_120 <= 1028.9\nentropy = 0.811\nsamples = 4\nvalue = [3, 0, 0, 0, 0, 0, 1, 0, 0]\nclass = labelDriving"] ;
112 -> 116 ;
117 [label="entropy = 1.0\nsamples = 2\nvalue = [1, 0, 0, 0, 0, 0, 1, 0, 0]\nclass = labelDriving"] ;
116 -> 117 ;
118 [label="entropy = 0.0\nsamples = 2\nvalue = [2, 0, 0, 0, 0, 0, 0, 0, 0]\nclass = labelDriving"] ;
116 -> 118 ;
119 [label="press_phone_pressure_temp_mean_ws_120 <= 1029.014\nentropy = 1.577\nsamples = 13\nvalue = [0, 0, 0, 0, 0, 4, 5, 0, 4]\nclass = labelWalking"] ;
103 -> 119 ;
120 [label="entropy = 0.0\nsamples = 4\nvalue = [0, 0, 0, 0, 0, 4, 0, 0, 0]\nclass = labelStanding"] ;
119 -> 120 ;
121 [label="gyr_phone_x_temp_std_ws_120 <= 0.102\nentropy = 0.991\nsamples = 9\nvalue = [0, 0, 0, 0, 0, 0, 5, 0, 4]\nclass = labelWalking"] ;
119 -> 121 ;
122 [label="entropy = 0.0\nsamples = 3\nvalue = [0, 0, 0, 0, 0, 0, 0, 0, 3]\nclass = undefined"] ;
121 -> 122 ;
123 [label="acc_phone_x_freq_1.9_Hz_ws_40 <= 0.143\nentropy = 0.65\nsamples = 6\nvalue = [0, 0, 0, 0, 0, 0, 5, 0, 1]\nclass = labelWalking"] ;
121 -> 123 ;
124 [label="entropy = 1.0\nsamples = 2\nvalue = [0, 0, 0, 0, 0, 0, 1, 0, 1]\nclass = labelWalking"] ;
123 -> 124 ;
125 [label="entropy = 0.0\nsamples = 4\nvalue = [0, 0, 0, 0, 0, 0, 4, 0, 0]\nclass = labelWalking"] ;
123 -> 125 ;
126 [label="acc_phone_y_freq_0.0_Hz_ws_40 <= -193.695\nentropy = 0.242\nsamples = 25\nvalue = [0, 0, 0, 0, 0, 0, 1, 0, 24]\nclass = undefined"] ;
102 -> 126 ;
127 [label="entropy = 1.0\nsamples = 2\nvalue = [0, 0, 0, 0, 0, 0, 1, 0, 1]\nclass = labelWalking"] ;
126 -> 127 ;
128 [label="entropy = 0.0\nsamples = 23\nvalue = [0, 0, 0, 0, 0, 0, 0, 0, 23]\nclass = undefined"] ;
126 -> 128 ;
129 [label="entropy = 0.0\nsamples = 41\nvalue = [0, 0, 0, 0, 0, 0, 41, 0, 0]\nclass = labelWalking"] ;
101 -> 129 ;
130 [label="acc_phone_y_freq_0.0_Hz_ws_40 <= 1.523\nentropy = 1.993\nsamples = 521\nvalue = [0, 0, 158, 0, 175, 0, 49, 12, 127]\nclass = labelSitting"] ;
0 -> 130 [labeldistance=2.5, labelangle=-45, headlabel="False"] ;
131 [label="acc_phone_y_freq_0.0_Hz_ws_40 <= -165.293\nentropy = 1.575\nsamples = 296\nvalue = [0, 0, 0, 0, 166, 0, 49, 12, 69]\nclass = labelSitting"] ;
130 -> 131 ;
132 [label="gyr_phone_x_temp_std_ws_120 <= 0.491\nentropy = 1.317\nsamples = 122\nvalue = [0, 0, 0, 0, 0, 0, 49, 10, 63]\nclass = undefined"] ;
131 -> 132 ;
133 [label="press_phone_pressure_temp_mean_ws_120 <= 1029.316\nentropy = 0.576\nsamples = 73\nvalue = [0, 0, 0, 0, 0, 0, 0, 10, 63]\nclass = undefined"] ;
132 -> 133 ;
134 [label="press_phone_pressure_temp_mean_ws_120 <= 1029.289\nentropy = 0.998\nsamples = 19\nvalue = [0, 0, 0, 0, 0, 0, 0, 10, 9]\nclass = labelWashingHands"] ;
133 -> 134 ;
135 [label="entropy = 0.0\nsamples = 9\nvalue = [0, 0, 0, 0, 0, 0, 0, 0, 9]\nclass = undefined"] ;
134 -> 135 ;
136 [label="entropy = 0.0\nsamples = 10\nvalue = [0, 0, 0, 0, 0, 0, 0, 10, 0]\nclass = labelWashingHands"] ;
134 -> 136 ;
137 [label="entropy = 0.0\nsamples = 54\nvalue = [0, 0, 0, 0, 0, 0, 0, 0, 54]\nclass = undefined"] ;
133 -> 137 ;
138 [label="entropy = 0.0\nsamples = 49\nvalue = [0, 0, 0, 0, 0, 0, 49, 0, 0]\nclass = labelWalking"] ;
132 -> 138 ;
139 [label="mag_phone_z_max_freq <= 0.241\nentropy = 0.306\nsamples = 174\nvalue = [0, 0, 0, 0, 166, 0, 0, 2, 6]\nclass = labelSitting"] ;
131 -> 139 ;
140 [label="entropy = 0.0\nsamples = 162\nvalue = [0, 0, 0, 0, 162, 0, 0, 0, 0]\nclass = labelSitting"] ;
139 -> 140 ;
141 [label="gyr_phone_x_temp_std_ws_120 <= 0.309\nentropy = 1.459\nsamples = 12\nvalue = [0, 0, 0, 0, 4, 0, 0, 2, 6]\nclass = undefined"] ;
139 -> 141 ;
142 [label="mag_watch_z_freq_0.9_Hz_ws_40 <= -14.761\nentropy = 0.991\nsamples = 9\nvalue = [0, 0, 0, 0, 4, 0, 0, 0, 5]\nclass = undefined"] ;
141 -> 142 ;
143 [label="entropy = 0.0\nsamples = 2\nvalue = [0, 0, 0, 0, 2, 0, 0, 0, 0]\nclass = labelSitting"] ;
142 -> 143 ;
144 [label="gyr_watch_y_freq_weighted <= -0.042\nentropy = 0.863\nsamples = 7\nvalue = [0, 0, 0, 0, 2, 0, 0, 0, 5]\nclass = undefined"] ;
142 -> 144 ;
145 [label="entropy = 0.0\nsamples = 2\nvalue = [0, 0, 0, 0, 2, 0, 0, 0, 0]\nclass = labelSitting"] ;
144 -> 145 ;
146 [label="entropy = 0.0\nsamples = 5\nvalue = [0, 0, 0, 0, 0, 0, 0, 0, 5]\nclass = undefined"] ;
144 -> 146 ;
147 [label="entropy = 0.918\nsamples = 3\nvalue = [0, 0, 0, 0, 0, 0, 0, 2, 1]\nclass = labelWashingHands"] ;
141 -> 147 ;
148 [label="gyr_watch_y_freq_weighted <= 0.059\nentropy = 1.048\nsamples = 225\nvalue = [0, 0, 158, 0, 9, 0, 0, 0, 58]\nclass = labelOnTable"] ;
130 -> 148 ;
149 [label="gyr_watch_y_freq_weighted <= -0.15\nentropy = 0.688\nsamples = 185\nvalue = [0, 0, 158, 0, 4, 0, 0, 0, 23]\nclass = labelOnTable"] ;
148 -> 149 ;
150 [label="acc_phone_x_freq_1.9_Hz_ws_40 <= -1.994\nentropy = 0.946\nsamples = 11\nvalue = [0, 0, 0, 0, 4, 0, 0, 0, 7]\nclass = undefined"] ;
149 -> 150 ;
151 [label="entropy = 0.0\nsamples = 4\nvalue = [0, 0, 0, 0, 4, 0, 0, 0, 0]\nclass = labelSitting"] ;
150 -> 151 ;
152 [label="entropy = 0.0\nsamples = 7\nvalue = [0, 0, 0, 0, 0, 0, 0, 0, 7]\nclass = undefined"] ;
150 -> 152 ;
153 [label="mag_phone_z_max_freq <= 0.0\nentropy = 0.443\nsamples = 174\nvalue = [0, 0, 158, 0, 0, 0, 0, 0, 16]\nclass = labelOnTable"] ;
149 -> 153 ;
154 [label="acc_phone_y_freq_0.0_Hz_ws_40 <= 2.613\nentropy = 0.107\nsamples = 141\nvalue = [0, 0, 139, 0, 0, 0, 0, 0, 2]\nclass = labelOnTable"] ;
153 -> 154 ;
155 [label="entropy = 0.918\nsamples = 3\nvalue = [0, 0, 1, 0, 0, 0, 0, 0, 2]\nclass = undefined"] ;
154 -> 155 ;
156 [label="entropy = 0.0\nsamples = 138\nvalue = [0, 0, 138, 0, 0, 0, 0, 0, 0]\nclass = labelOnTable"] ;
154 -> 156 ;
157 [label="press_phone_pressure_temp_mean_ws_120 <= 1029.255\nentropy = 0.983\nsamples = 33\nvalue = [0, 0, 19, 0, 0, 0, 0, 0, 14]\nclass = labelOnTable"] ;
153 -> 157 ;
158 [label="entropy = 0.0\nsamples = 12\nvalue = [0, 0, 12, 0, 0, 0, 0, 0, 0]\nclass = labelOnTable"] ;
157 -> 158 ;
159 [label="mag_watch_z_freq_0.9_Hz_ws_40 <= 1.802\nentropy = 0.918\nsamples = 21\nvalue = [0, 0, 7, 0, 0, 0, 0, 0, 14]\nclass = undefined"] ;
157 -> 159 ;
160 [label="mag_watch_z_freq_0.9_Hz_ws_40 <= -0.59\nentropy = 0.764\nsamples = 18\nvalue = [0, 0, 4, 0, 0, 0, 0, 0, 14]\nclass = undefined"] ;
159 -> 160 ;
161 [label="gyr_phone_y_freq_1.0_Hz_ws_40 <= -0.021\nentropy = 1.0\nsamples = 8\nvalue = [0, 0, 4, 0, 0, 0, 0, 0, 4]\nclass = labelOnTable"] ;
160 -> 161 ;
162 [label="entropy = 0.0\nsamples = 3\nvalue = [0, 0, 0, 0, 0, 0, 0, 0, 3]\nclass = undefined"] ;
161 -> 162 ;
163 [label="mag_phone_z_max_freq <= 1.062\nentropy = 0.722\nsamples = 5\nvalue = [0, 0, 4, 0, 0, 0, 0, 0, 1]\nclass = labelOnTable"] ;
161 -> 163 ;
164 [label="entropy = 0.0\nsamples = 3\nvalue = [0, 0, 3, 0, 0, 0, 0, 0, 0]\nclass = labelOnTable"] ;
163 -> 164 ;
165 [label="entropy = 1.0\nsamples = 2\nvalue = [0, 0, 1, 0, 0, 0, 0, 0, 1]\nclass = labelOnTable"] ;
163 -> 165 ;
166 [label="entropy = 0.0\nsamples = 10\nvalue = [0, 0, 0, 0, 0, 0, 0, 0, 10]\nclass = undefined"] ;
160 -> 166 ;
167 [label="entropy = 0.0\nsamples = 3\nvalue = [0, 0, 3, 0, 0, 0, 0, 0, 0]\nclass = labelOnTable"] ;
159 -> 167 ;
168 [label="acc_phone_x_freq_1.9_Hz_ws_40 <= -2.864\nentropy = 0.544\nsamples = 40\nvalue = [0, 0, 0, 0, 5, 0, 0, 0, 35]\nclass = undefined"] ;
148 -> 168 ;
169 [label="entropy = 0.0\nsamples = 4\nvalue = [0, 0, 0, 0, 4, 0, 0, 0, 0]\nclass = labelSitting"] ;
168 -> 169 ;
170 [label="mag_watch_z_freq_0.9_Hz_ws_40 <= 63.121\nentropy = 0.183\nsamples = 36\nvalue = [0, 0, 0, 0, 1, 0, 0, 0, 35]\nclass = undefined"] ;
168 -> 170 ;
171 [label="entropy = 0.0\nsamples = 34\nvalue = [0, 0, 0, 0, 0, 0, 0, 0, 34]\nclass = undefined"] ;
170 -> 171 ;
172 [label="entropy = 1.0\nsamples = 2\nvalue = [0, 0, 0, 0, 1, 0, 0, 0, 1]\nclass = labelSitting"] ;
170 -> 172 ;
}